function [y1] = mynn(x1)
%MYNN neural network simulation function.
%
% Generated by Neural Network Toolbox function genFunction, 26-Aug-2015 02:11:25.
% 
% [y1] = mynn(x1) takes these arguments:
%   x = 66xQ matrix, input #1
% and returns:
%   y = 6xQ matrix, output #1
% where Q is the number of samples.

%#ok<*RPMT0>

  % ===== NEURAL NETWORK CONSTANTS =====
  
  % Input 1
  x1_step1_xoffset = [-3.22788724033986;-2.64462951077374;-3.25744042535222;-0.903729004288911;-0.994613013608909;-0.956814611092042;-0.710776778965483;-1.12914786245433;-2.98580393914439;-0.784331599837368;-1.2340001972794;-4.65854631904672;-0.697816350417192;-1.56716149006418;-4.30300682010435;-1.35813711212877;-1.51619971792256;-1.60373121143191;-1.66963003504808;-1.933572854629;-2.19435748657663;-0.390307978856045;-0.484929168981437;-0.406181940947681;-0.400377442998007;-0.567212507595909;-0.561170853492038;-1.57067510193815;-1.64866633167116;-1.7756284881806;-1.88177754314697;-2.09249934021869;-2.34067881165241;-0.5820016260992;-0.633638428780264;-0.538229239631167;-0.594846400201163;-0.610592422987535;-0.654972437133502;-1.6229061439402;-1.64582204670354;-1.63991215763378;-1.71651646797758;-1.92162917708115;-2.26142185852854;-0.505164520982966;-0.525019116060363;-0.42451262242669;-0.529497956534388;-0.538285254885884;-0.533523121214564;-0.642934843720762;-0.641058110247361;-0.671227550861488;-0.615556839622678;-0.612419888660081;-0.594336932697234;-0.713833834789626;-0.670563408313587;-0.629173342775853;-0.649945071665244;-0.551057402739816;-0.580314447691205;-0.565033403618292;-0.488837000740956;-0.546153791067444];
  x1_step1_gain = [0.51227891222515;0.381823473322465;0.335216544871639;0.45543965468013;0.498493707814039;0.397752976704627;0.26640334540805;0.422627443127181;0.170776533286778;0.317573535911065;0.454127493974828;0.157962121110611;0.222228591784761;0.393903026816667;0.165878191017308;0.185288061999896;0.209404580729627;0.254620806400411;0.292373926880894;0.324907710464168;0.362183173702201;0.128608616712066;0.167280320734576;0.234854032889658;0.105028713757965;0.191193012268738;0.0847866626841719;0.196219864733001;0.250014948910744;0.281807028391713;0.292062818795613;0.327067779407358;0.317569805038306;0.172952404281622;0.230068983084508;0.188156627637276;0.2106491997604;0.155137547061843;0.164087784756678;0.122326482003017;0.19049106071845;0.272143240407351;0.306530540815676;0.323421266732414;0.359296144093081;0.127613899835618;0.206841408102391;0.145075484362685;0.105353213240757;0.116958907885266;0.140552963167614;0.255671347282813;0.234815933608861;0.249888545913491;0.207251636524725;0.165653033080115;0.180974674099563;0.262815507758757;0.19730697775828;0.194750765288136;0.19836921560825;0.134227939713126;0.17864017420312;0.175690277925892;0.0674976339574082;0.110248499534671];
  x1_step1_ymin = -1;
  
  % Layer 1
  b1 = [-1.4841855827537935;-0.98742118769809484;1.2256203047470786;0.90229033646360468;1.0649248511499851;-0.52539303737351795;-0.36085723953121496;-0.15975368562937317;0.21137682486950149;0.15025555675049815;-0.046225173615111068;-0.35272224063812185;-0.67241654862848621;-0.87629286000326678;1.2908237521557782;-1.2806772181028421;1.110756227439466;-1.1023733995639684];
  IW1_1 = [-0.35654576465389415 -0.50021861008093882 0.16792238315891939 -0.4207927291079927 -0.098690186572064117 -0.27127479780238134 -0.47674892840431859 0.025892572051908789 -0.41002940400421195 0.014953748491706324 -0.48103241726085927 -0.29685400375072063 -0.2068787674089268 0.012053619106362688 0.10794149654376685 0.089653230626471472 -0.27014679504648698 -0.33481498998542247 -0.30658865733164353 0.17051257286936425 -0.03444282211968426 -0.022487140316956131 -0.19163743419149606 -0.017764076894983702 -0.2008988611498434 0.33817194108720089 0.17612456247287689 -0.33035548822797417 -0.16097730276081285 0.2537859925150654 0.22002377290260594 0.33729039066357425 0.13693216076569867 0.55853297328753726 0.067712378604992268 0.026247766299011578 -0.16002848933846142 0.22312778042325188 -0.16117895652047784 -0.18735464715945538 -0.37347846229098763 -0.028163295252164842 0.056124207043737273 -0.20638420772992402 0.32316412148730939 -0.02959837683092098 -0.20500692316341257 0.49147933354573498 -0.14768725073077568 -0.14310291275112652 -0.085416887795970689 -0.22110915318632057 -0.46884318932341834 0.38625279744934271 -0.3231363889250391 0.18113936991646654 0.73030613127239752 -0.11103614905756073 -0.27857879787110834 0.46558233399783749 -0.22245368434708532 0.17464986758866113 -0.33258000023677309 -0.051877309609146743 -0.27553193846867463 -0.087604756809454815;1.7991248621543743 -2.6818757316212238 0.31463108316868232 1.0130667731774243 1.0011558523231274 0.2641466194713874 0.060221956669278286 0.0080913934213729492 0.25489267607427907 0.52088563056561699 -0.13879328288395845 -0.020674401952561115 0.31396750207351554 -0.10062262050011822 -0.073814722652301781 0.032738626496403717 -0.16272013820765474 -0.16115955107800464 -0.078884329297873798 0.11945517523657712 -0.20476771712964723 -0.19756432874138499 -0.24886130297090411 0.14517520569850065 -0.11259786741440851 -0.01220737345141918 -0.062980747929036032 0.056241967572494736 -0.15198436170716897 -0.14401648000236211 0.064383839724466707 -0.018471073663441844 0.041745361132628916 -0.30864747736007858 0.1250859273196353 -0.21825909058700899 -0.19919279812568666 -0.2085314870739533 0.29012958811565065 -0.38156342370941643 0.19234297455255542 -0.10731741794763172 -0.074328784753850935 0.31886503447287984 -0.048022708103066497 -0.40734050218015899 -0.30320799568763124 -0.043485426977497854 0.14711684839124892 -0.17583417173499918 -0.27258372032463768 0.27386368635548058 0.079307441665751391 0.21260473730535692 0.15024525100374306 0.18040591503417241 -0.53557661624514585 0.51699533780953077 -0.12047768846807248 0.14887143992139221 -0.093200253605613889 -0.30547867104086823 0.13050354944500173 -0.19353140793083895 -0.006059320773329554 -0.099926833095127163;-0.077566074251776446 -0.011352403364284069 -0.1103418639137269 -0.32627455611817224 -0.016791502003264649 -0.25383843530703415 0.17044754574379209 -0.22316794200705922 0.13508252756657424 0.15514902453051529 0.19330668829893166 0.16165216762464438 -0.34353427407964249 0.077205952079935691 0.26177264210966328 0.1089683548416813 -0.34891170021722395 -0.16949882064437699 -0.23815751053394682 0.10859132779200287 0.10530177873837648 -0.34220720030022223 -0.22535622918762802 -0.10908406815801956 0.0079462646804797955 0.0027873603815696387 -0.073845878436188145 0.047126773440847571 0.049790639666488411 0.13204727449233725 -0.22225444766370045 0.22094109106372237 0.10723113627523506 0.094016373118019692 0.038117742028522993 -0.2909825789506037 0.17891639524303954 0.19366269646870454 0.014724467894496884 0.15452027916956312 0.17905290621637446 -0.10128716568074231 0.071870147379918467 0.07894668693912367 -0.0091001358764730665 0.065158529530647324 -0.11224535057585912 -0.071671940498965567 -0.16300949470446477 -0.052820324377291117 0.019871587174974423 -0.34215437137684979 0.08235235658687079 -0.32544904788872681 -0.24906337238949899 0.053739809689251308 0.14944561793160008 0.19364314301650812 0.058185244246724645 -0.34870892352906596 -0.2653129958957462 0.18571580532244228 0.12678738031142703 -0.15479248050681244 -0.30770792979612199 0.079937501460354388;0.22849141032304193 -1.2856700454180652 -0.017384287552744071 -0.49137019496312823 0.55157471817669046 0.02492433724964558 -0.14049512135868325 -0.015639442051623795 -0.61676936482381062 0.15062543056063293 0.24619017364951062 -0.34862612046753466 0.42023144676020263 -0.31931713790929633 0.33435704834244417 -0.15952418035131041 0.18705019045653298 -0.15944186469678898 0.029311178591048433 -0.016726838179003709 0.26671230455571665 -0.30120160611468433 -0.52521560517301769 -0.2333936929497013 0.070419802506939563 0.12495179381273733 0.31245837051431297 -0.35666508940337172 -0.13513644860565591 0.20301238259856214 0.16580791626207778 0.22994775856075222 0.05926031683390965 -0.04487135419147726 0.3505187386601375 0.30230389087810694 -0.067262360817315708 0.056356246367431716 0.076494241403066293 -0.31636576868047644 -0.070079409322744271 -0.50262139783479887 -0.40152866578823948 0.13364949363889844 0.261216528366227 0.29335373345609195 0.4045713830530831 0.10957434183756846 0.16546920118537897 0.1937634651898979 -0.15625197633558555 -0.46297066054573771 -0.63267882711345513 0.63649608011632453 0.087709595903184584 0.19793949654458057 0.098558484047092457 0.013629210499971067 0.19560048097926203 0.32204825344325416 0.38383637805645537 0.50301862513068762 -0.12134380952547483 -0.070625072122727062 0.12116567949190751 -0.20014844911719368;-1.1622999160716085 1.2041499215867355 0.84131367575389515 0.04745238533476949 0.61412505341320911 0.98730597249004104 -0.16030582881701885 0.14770190658480081 -0.44086600867096382 0.47195388200043548 0.027069283336551366 -0.15511558884080776 0.52409349350880441 -0.36630259991433078 0.11587923247604097 -0.0084527467906036196 -0.2427473887230189 0.013472799428008496 -0.18907563124907784 0.08942718250808232 -0.15665633473130094 -0.21114911203364664 -0.30641616598661114 -0.74838136742478423 -0.1978318963151956 0.35735490233009576 -0.058422341810227929 -0.35934013474726839 0.049930657493669636 -0.11829777813396009 -0.0072784913885780428 0.034286074406829473 0.18831754616204613 0.018102748143395936 -0.32193307872023103 -0.23955983831914915 -0.089974607102751389 0.48110438834516117 0.68810153977040545 -0.32038550569331464 -0.63268937103867773 0.1118724328702676 0.15257197605274087 0.26854621167635184 0.40966650096809087 0.1108617381644319 0.10694812259945503 -0.41874842603581103 -0.24920364976110035 -0.13378567974934577 0.17982279329960874 -0.53251234778006118 -0.56618934760946749 0.41639193378445816 -0.16925737716530057 0.17448830830431919 0.073466126236423054 0.23487144575399563 0.31839688293828616 0.57337635900269812 0.26507339499735072 -0.38728438882880917 0.091232575759634241 0.34222083684313492 -0.023975386345506895 0.081754106791184777;0.16318209450610677 -0.67563047614759708 -0.86170825962983943 0.64008467671249725 0.47525761345874312 0.4924732562827131 -0.038795769787404226 -0.26977097324564958 0.59748687487161478 0.17139470926570555 -0.42005889287513537 0.47525191769846631 0.23641750566551725 0.090897673337715548 -0.093876977030198247 -0.077427424588415686 -0.48797086135668954 -0.19695575382885797 0.092109976577115796 -0.21801539970824646 -0.18873817517767719 -0.33434657136637985 0.25084351505056496 0.2489793753416677 -0.068489370080199896 0.071642463486249058 0.21004004675171031 0.16172169949605561 -0.06970595160339095 -0.22046901276631997 0.30709573844520477 0.12342060519251577 -0.20995833326157462 0.14937374949986995 0.35508867715163844 0.068728903359441887 -0.13491796709569343 0.031228046155375219 -0.45630528820642391 -0.25559887273465443 0.44442294734501664 -0.11335705847468487 -0.26405382559397106 -0.21859570780034807 -0.24202482052347746 0.10280800982784211 0.10601557490822415 -0.11236454091097582 -0.16980101567931985 -0.081602111497177235 -0.66725419303865119 0.47231484061484857 0.055520306176334168 -0.048942482277075282 0.097726775535739788 -0.28016162895321384 0.48715674078663629 0.27619926620194107 0.03409019629129427 -0.017755091419845208 -0.53621567729981823 0.66407207623865161 0.13287032520602993 -0.54287589943032644 -0.096577000817852227 -0.12527297106487625;0.1880634596575039 0.013126268872600108 0.26265012035075191 -0.11554761352849761 -0.22892005009209274 0.030166732713300087 -0.14273755133870883 -0.32584465421119113 -0.035300964664494325 -0.2086768281250542 -0.19769760858926488 -0.019465307212036688 -0.30271026504753462 -0.039868586681332981 -0.30254914659258503 -0.32322336272075852 -0.13827905338404525 0.073759193991466743 -0.24797575047370402 0.2218848835085282 -0.30517864120091065 -0.098734353965824903 -0.15862659976922061 -0.066901691499250474 0.031673588405213886 -0.20606386346995653 -0.24329171291370816 0.18900261603577664 0.081246000777085853 0.15817801858907685 0.16300073306100005 0.23046893627034262 -0.27748048838329864 -0.34553227450212121 -0.28053528739046962 0.22763312644675013 -0.069277970619198825 -0.18724411042903236 0.106050258863109 -0.08111239644133697 -0.1508311677127526 0.037106556320606311 -0.2679198862352164 -0.20341159744642012 -0.24996977479000429 -0.20015938519669615 -0.30542214119763011 0.20796011842496478 -0.2799369689286032 -0.30274114215443504 0.15019975382821213 -0.09847974918303852 0.063231907781997221 0.28125213130832605 -0.22722728530750969 -0.0042581990663452477 -0.016564793221968022 -0.14192043558425496 -0.14667649078888145 -0.22640144250505992 -0.0091150422980894076 -0.28534801111549052 -0.027234482576680624 0.08377037680221297 -0.063034446457998383 0.035837238204113567;-0.27614047953480053 -2.2236318559934372 -0.36723350811100425 0.43675546402530729 -0.10664823492638532 -0.34735265277191352 0.63288236263551123 0.012801051754855464 0.5515803466099396 -0.2835913029207921 -0.15717005167555706 0.16450196683642454 0.061126775673430916 0.1157448730941983 0.11811679450801332 -0.2529372090904996 -0.13446493546217506 0.15827068791927656 0.30161085691720746 0.32287619346027757 0.021995294958458214 0.040512059465178253 0.4553696643597695 -0.22571102758375997 -0.042746130273760272 -0.28330379773671988 -0.51628747934183017 0.38887433150905848 0.010822462481349878 0.098047879588354994 -0.023811332066960959 0.20650403226551395 -0.10176265746678215 -0.37386796473967032 0.1134017391356844 -0.013943463646837104 -0.033744155655099882 -0.30584357425021236 -0.19099174442080721 -0.11925954325732656 0.32729507661577678 0.21658482353523598 0.061440623172185273 0.13477998679662548 -0.011820195227615708 -0.50540036884702089 0.22872804884731382 0.070916657801033456 0.16299708979807478 -0.23327460990254542 -0.27008905990982995 0.33955656026345776 0.51075181348931109 -0.34182412502943305 0.4024949634499021 -0.068350846304843185 -0.016282886034169792 0.21325699726592023 0.27964466018666062 -0.37635130176133036 -0.057507268228814891 -0.078996773636239359 0.30114560550288144 0.070705039470486994 -0.15682447501681451 -0.49571027580397736;-0.04309236855775686 -0.27635423814679172 0.14518888471403149 -0.16980791736328676 -0.29298430615621912 0.25567463104930915 -0.094026934922820604 0.035660560065425562 -0.032701798628574724 -0.031554105955798988 -0.0034119171200345721 -0.18904711732255386 -0.15478365079690956 0.21309926147487923 -0.33346964261486683 -0.30619339207194712 -0.095992676367308169 -0.30483762088728095 -0.091363475567512939 0.14780132309638955 -0.02931429368184147 -0.12120869593391664 0.043912512768829209 -0.17200271067948117 -0.00918404157970951 -0.015441535767158159 -0.36622815732679415 -0.13056843245865329 -0.095702215364992016 -0.17318682194736115 -0.028236827885922643 -0.38075164687917956 0.066487282803215642 -0.19716062712663973 0.16847332005932938 0.07544640422243723 -0.38679407673068689 -0.099282029974266647 -0.011325506646713909 0.2454383532393104 0.11252676569287567 -0.30954160551467896 -0.15890329633040007 0.14126124734227341 -0.17550650140437771 0.015470608029775118 -0.32714733304471261 -0.063783043738655953 0.15977507113989239 -0.22970577834210826 -0.31334903872082359 -0.27727570328048357 0.077338369907829815 0.057686095156999136 -0.28796564582595036 -0.2089241970756659 0.16755743169593917 -0.20995274385692478 -0.065305120103726008 0.065485403746670487 -0.18438339189996436 0.19180059007190992 0.019896503521139634 -0.0012138905083332867 0.15909240104207234 -0.14962082984682057;0.079076035184776808 -0.10764151258379205 0.18202744853569941 0.068872148711523223 0.15986915664266335 0.066373176344664747 -0.25685012046671213 0.11723670241914753 -0.12248766343665006 -0.19462439258748665 -0.18656114327591541 -0.030925294390974703 0.099879393192311594 0.04632018327871866 -0.28164525898043019 -0.1144062608144384 -0.14454298373693486 -0.27701426762392889 -0.27961231311215368 -0.18669602839967542 0.074211780829524676 0.1946262396035503 -0.34364660629549321 0.017752618798269386 0.23744836019281887 -0.010509591648394339 -0.33332229628413457 0.077681100904062994 -0.34139333833978902 0.082818209777541091 -0.29898875221322757 0.21153433722019058 0.12289789961366247 -0.35608194712886682 0.20026735948771068 -0.33393003679722405 0.18884800432207904 0.13047894762279205 -0.24139529460106501 -0.1506336674116453 -0.33614728665330618 -0.25891772287686837 0.074487131347393057 -0.22174544105158855 0.040861958416588948 -0.10194113228642393 -0.27352949165181489 -0.17390209896458236 -0.14071900069803758 -0.16213318938635737 0.066055581991496304 -0.2059623111492683 -0.057864395803956629 0.03148956221717452 0.07751231734718235 -0.19255313090183798 0.016626900456922923 -0.15304053638881049 -0.087672797452524612 -0.049016370701197624 -0.24162829939429178 0.21483196523750311 -0.10751645613732169 0.06987571157386134 -0.14245277088478644 -0.28511481935380756;-0.69190260666820225 -0.32772844106098176 -0.033970746692204921 -1.1118791275832658 -0.16998023241067017 -0.3575744237574312 -0.55303865401655139 0.33392105445427878 -0.17421134269143385 -0.17621103575835917 0.2029476406797836 0.40596896163604901 -0.44044492987214656 0.33507917386365299 -0.051609572973997958 -0.085220982764441996 0.1270337146829027 0.091894222525475605 0.095140603884394104 0.29204005079573153 0.20886464604146002 -0.20261725290049856 -0.12627388109498239 0.060536461321249568 -0.072565469548331249 0.22734603114710183 0.15619317544067646 0.12792564541443302 -0.074591169409173708 -0.045157842722771804 -0.053418243713223998 0.20595419558560141 0.17487757115446034 0.24055452230808544 0.44433919744326861 0.52367803343890773 -0.024353743409869569 -0.080675613236841859 -0.14184812853745909 -0.23657770942814241 0.043588050636079755 0.054532652704517598 0.19345480983588384 -0.30302435720282073 0.57850032219428038 0.49418865981148191 0.00017068466585629181 0.26792540445640151 -0.083122524633303913 0.21175540197641821 -0.23712245831743847 -0.65375499963831785 -0.81235162589992471 0.17894029277620516 -0.51033113539681707 -0.36745785856427238 0.40927043982820599 -0.37193929481234378 -0.68292209997163522 0.35096942239226242 -0.46170199906954495 0.8934672386788266 -0.34190607262035883 -0.81659982381004825 -0.021657196060318924 -0.38931790302272368;-0.49302916065384406 -0.35403518584160626 0.3977157091285376 0.2475831434282586 0.16320897160917217 -0.046420456486650885 0.014446761888627308 -0.095383398478679327 -0.10202893081516488 -0.22034984891726872 -0.025092004241449802 -0.11114323545094931 0.12194814438679975 0.0041804989073227104 -0.1679796524819232 0.23369438424634173 0.35966469083751845 -0.18476100086008532 -0.20358269500749074 -0.32042607561689795 0.037507643487302421 0.32574426327867256 -0.11518922825968139 0.040273479265131362 0.1157641880204215 -0.11926049214067648 -0.064685876018131777 0.057307605067222808 -0.058504072539355065 0.21288649352341255 -0.20203607646993291 0.24984019094264759 0.42265346605828441 -0.33029709038840949 -0.33012679862286071 0.062517668088918968 0.23181267565055352 -0.19003482459603374 -0.077578993452830244 -0.2164243130303537 0.076964654972566202 -0.011573043952421326 0.040779415100680012 0.25807697931688917 0.00065188816145548612 -0.10379837294729588 -0.28114520595722436 -0.069391776101524583 -0.12500416390127692 0.23113647174306892 0.12934733828330569 0.27504838215539273 0.26711412132497969 -0.24152075314667848 -0.25027907405145117 -0.080547432943696956 -0.39291161202965835 -0.0026907801027245162 -0.15085545588851557 -0.21122798010204755 -0.15509694458660819 -0.17769776786526137 -0.0014488360207023491 0.071410038723146524 0.31293685134593296 -0.05755743735310577;-2.8311265205858169 0.36564417261204818 0.089065315351868388 0.02634600566517991 -0.18233913263485813 0.026869343974404422 -0.32387391553460754 -0.17649221041178789 0.078548100413190297 -0.098543169094995747 0.12628098189812578 0.022899209848587017 -0.15858740676157362 0.15906375339017301 0.20262735467536563 -0.22605451517404945 -0.053827512784376468 -0.035750758612947631 0.23969159549276536 0.16871080133579841 0.1488946705043501 0.13952485590131897 0.1878787717722504 -0.20413830036157332 -0.15447596444110753 -0.17914346440413675 -0.061235252058052546 -0.087452934303074104 -0.12692090835640746 0.12993138959433617 0.0019990572116144857 -0.16652960788926693 0.14189503461551586 -0.092181304911472445 0.18272679112557541 0.35955587810359663 -0.083754536357609877 -0.18870530183530074 -0.22664950344207152 -0.046671483031223815 0.1123591911428507 0.17046360352585979 0.14663122557566491 -0.22775777331739552 0.1144003853366147 -0.14812420349818356 -0.070316271159772126 0.39861401141286434 0.051657264786416753 0.30722900410423354 0.12863624329427709 0.2410514978101003 -0.29800518513408869 -0.31350550587224041 0.080267522269788782 0.17207840064190419 0.023617643290681251 -0.036110381290718314 -0.13016762926926234 -0.17097035288327944 0.060230532939566477 0.086753632124635285 0.028207727652121362 -0.07703694282582485 -0.25686798629250157 -0.074442208957988656;-0.094403284788782266 -0.15054465034796147 -0.25973378132535108 0.17565671230937202 -0.022665123134994556 -0.2153480982160958 -0.022138931691876626 -0.053804952818852225 0.19860686903995842 -0.15226399702994556 -0.17998110333799372 -0.14434341413028037 0.1511229100891191 0.09230972596728404 0.19989682064031097 -0.0013290660823590341 0.19885254499037061 0.081057164927487213 0.087681652191039031 -0.087281808435028543 0.30472933199475694 0.35689162847365885 -0.22926904760627043 0.33572016163273083 -0.14591322643192259 -0.16218145113821292 0.24122553058930743 -0.15215651033131261 -0.13545005535910448 -0.16027450608872931 0.040465959718512599 0.022205416987209726 0.076967338067664884 -0.08552304136557845 0.16426086231609335 0.31058644028679216 0.028506378657697909 -0.011573527486011424 -0.10603803755070411 -0.20307292450796932 0.071271444378821713 0.22407376876314419 -0.12219327706450323 0.12128178808879762 0.18428443583451848 -0.015099745611806116 -0.1093207306843445 -0.10702668085452773 0.27617651709628038 0.051992773869635044 -0.14062191170305985 0.35853676810037682 0.23084986850966138 0.0092335564389819068 -0.039110529576673415 0.35685259414072623 -0.17322568201487634 0.11446119622704326 0.19494958073226526 0.26919524613751272 0.31134533477309156 0.36940529958513685 0.17270288531127506 -0.096193704338495473 0.37209924434586777 -0.13911947352982443;-1.1449066246501316 1.1343703141291976 0.32877915079035863 0.74857858026919244 1.0496532104012155 0.73991128738520473 -0.27189855038946492 -0.2394463912377868 -0.13378770779697838 0.34018896686857125 -0.60205879872750279 0.0096506104648429198 0.21059462898080761 -0.4046142874931889 0.14438476667519554 -0.052537976836854856 -0.24134946897710982 0.13669504837718652 -0.2420816969673423 -0.13547913838036729 -0.089707067903447235 -0.26606521587891141 -0.32186467772231803 -0.41127215340868861 -0.19164371553004944 0.21175142258890042 -0.15141286420608221 -0.11616544945679583 0.18392810162044224 0.25697504088672718 -0.22915893532683534 0.40273410721544262 0.7563418454385008 -0.21873898148900878 0.0062201719235246665 0.14492257700092856 -0.2553324808982731 -0.16306572278953482 0.44486022694284849 -0.141735043537011 -0.11385031548691107 0.10683822659528905 0.2458215444990344 -0.13096040110935062 0.28862898174316626 0.12983318291840182 -0.048718019070209055 -0.32849415185290914 -0.12306631605727089 -0.28667619410379125 0.3018050210018785 -0.11170677469481054 0.031362776109267812 -0.025787362501122669 0.044772838765705363 -0.34983326149355026 -0.22635989409087362 0.36951806051026026 0.41631088519084308 0.26669198345438566 0.25102826819102336 -0.34472069877990258 0.29510802004545389 0.23953368561305297 -0.39231314881846757 -0.15904718409400148;2.0741395876597757 0.19479092783961757 0.40557014050145446 -0.42105132156916475 -0.93610976959915082 -1.2003785085736645 0.38456455334547612 -0.08093503198435939 -0.058308742702690194 -0.5075437602038716 -0.073139262570947799 -0.4319130584679729 -0.076653917619686623 0.0021738294604272406 -0.34407746957135138 0.28829338538319954 0.16781679934214769 0.37386891950885703 -0.16167863973855276 -0.32832988098125593 -0.036586727731577035 0.42484127476920869 0.35153760831918374 0.56607067205994654 0.16915334232019261 -0.056332325198507005 0.19117258453338778 -0.11765672107736491 -0.10159959694378955 0.15164488390792702 -0.30433074124266352 -0.25437534216320928 0.22693643488141713 -0.53324937339202438 -1.0228497685774638 -0.36973658995020464 -0.30986509869848894 0.11169268599678225 -0.22697770971739609 0.34550264323828184 -0.066410835447359651 -0.34398169679097917 0.1742516768718457 0.052956781307360888 -0.065851982051170543 -0.35771669391199279 -0.51969390899739798 -0.4217784499768516 -0.073945172236601756 0.29052855634144337 0.4580063511328033 0.62502667213444763 1.024216795613746 -0.45251996996951438 0.6344720531495962 0.50594516073563756 -0.41931084296986393 -0.28107684630334606 0.47401412571176071 0.18443663607535687 -0.060822069955680673 -0.45629848741873147 -0.05494016391103354 0.91076346115854057 0.46644290594216453 0.16156831886724274;-0.14544841203801306 -0.13450313929476856 0.42172209388657028 -0.37945166003916347 -0.35624341271503496 -0.38634752511654752 0.14276183285809718 0.22294460850859951 0.12935170711754324 -0.45833511820692058 0.020898838252155563 0.007995125220939054 -0.01482881448049706 0.31066460905639842 -0.025340233391294254 0.13475690028679779 0.11707825339335069 -0.12303043535405468 0.14429727845082566 0.029186157833045658 -0.10543873170816434 -0.0084063770503908768 0.048552579776395363 -0.11306697011675117 0.071033151306407749 -0.013467570939534679 0.3749764938125198 -0.27554673846499023 0.28583458855122884 0.022626051810004866 -0.14077123066547648 0.08690876549282564 -0.25850756399495872 -0.23566376979562684 0.24703259855831428 -0.052302865519074523 -0.011090307752646234 -0.1784310110304467 -0.2488769236859735 0.15789809846258668 0.27475491996014356 -0.19986765723151795 0.31780735546085509 0.20596682801125352 -0.053422048158458926 -0.026507335899455118 -0.2357648622412204 -0.16149296499640725 -0.12574985483951989 0.22881529649039833 0.033170668662121539 0.38784922556166701 -0.12754781224122519 -0.13220409594186627 -0.014941500154557457 -0.26588736766438642 0.46572925235742541 -0.27804021787049382 -0.54670127549781733 -0.27491394911425976 -0.22252830073666405 0.30992651198955867 -0.026918331733054648 -0.21718886965914683 0.13837782459626241 0.26782693684229858;-1.2166766198739831 -0.26007139345757541 -0.79943632012349053 1.2323613855954165 0.5781328159149135 0.3071923849435988 0.7674266064091102 -0.26950739421794762 0.64924366666416522 0.43179921052071801 -0.24131747749570201 -0.06570463961004451 0.52558934902417132 -0.10235458686577648 -0.075728601169196164 -0.35449710748613944 -0.16463112372115948 -0.31607371123626782 0.047870390395572532 -0.51025265984051371 0.059116840206141483 -0.077066241211572767 0.29485580259850941 -0.035288198285792882 -0.30850592983766573 -0.40921732885615247 -0.18091603655676411 0.24817396903640293 -0.27165908493618107 -0.14844332466862273 -0.53931910279940254 -0.082639852861853547 -0.59399273831588895 0.078354686765018916 -0.37173819995426582 -0.10877596001214829 -0.4580201266752244 -0.58940279586130639 -0.64297842199970234 -0.29421455912696953 0.11551084405156814 -0.26141670840220177 -0.33873398352688044 -0.43085996069972848 -0.21355029779085735 -0.26867149238402549 -0.41950478884460024 0.0037607660962971998 -0.11986496028039742 -0.047607434627023867 -0.54583884687901119 1.7083319805270536 0.32759376390860639 0.0037800958485473303 0.15930343282397177 0.19172840338243352 0.22063032182141859 0.015495244337166432 0.072497479236975609 -0.34257871219058872 -0.057591190449542189 0.29752990487969316 0.30979813988034766 -0.016660163446130083 -0.29657007452140244 -0.65653854105189746];
  
  % Layer 2
  b2 = [0.58650911579296039;0.0090913339152008041;0.36874182108338505;-0.21386928982311898;-0.19552294187197977;0.47504637418305418];
  LW2_1 = [0.61834151839092544 2.0385688016857446 -0.70677056704845642 1.391971525721615 2.0796919084528755 -0.29622557135468192 0.50134297759777102 -0.61223268655535723 0.06824664332117257 -1.0186156077422126 0.20415282391326156 0.15055166902720318 -0.23227705168346729 1.0594198521790075 2.1435730966431743 -0.7992096729977034 0.33117827780814313 -1.5989428263447492;-0.34490404984362066 0.94958882090904362 0.23283140298151753 0.08002820769773239 -1.0533468510498314 1.7470502469381095 0.36863714856483792 1.6559701698494427 0.74232930130098251 -0.25695538021303849 1.5621234637362513 -0.20357565218353663 0.30042134156544481 0.93133434324834496 0.057982357242494967 -1.9727987918906453 0.29630699536305988 2.2764879309008657;-1.4071889506789057 1.4612168016828406 0.57111631933454909 -0.6854739385187919 0.21434121877419343 -0.35663449922209839 0.47525003686592765 1.4038631676559885 0.72600695160811735 0.42515512599348343 -1.9757980545558491 0.30858660326745535 -0.36835300437331281 -0.38834789210222692 1.2500544372320173 1.5014114645024985 -0.92133202286703209 1.4449363343938975;0.037394082982518465 -3.2180481198010158 0.84744551700527537 0.23925996692746174 -0.21879551912590925 -0.98304776916328729 -0.57422129663530208 -1.2829558666154772 0.29055385234628545 0.18724937111864567 0.92558691473148391 -1.2204972407841104 -0.19772906495538789 -0.21606126782366067 -0.16703053909211318 1.2942687244592739 -0.020615587586292998 -0.75330509932851342;0.60224009533360645 0.37358572226579345 0.0063751501488752719 1.0232081351006717 -1.8711722396535606 -0.47675167451270622 -1.0530539160313588 0.92832707253593139 0.3895851529548468 -0.36279313366935989 0.87606520942826749 -0.14238720630823834 -0.75273625761956731 -0.37868572561565073 -2.3013870202554192 1.9934110671752479 -0.4974864145835507 -0.64394362983049058;0.99308505690728444 -2.546098460481188 -0.61437340107134564 0.45736821486962415 1.4926380749262087 -0.76399098776800833 0.18568888210516385 0.31639693366587823 0.34243422568801746 0.92464099753668583 1.3086522282539139 0.45692447473438852 4.0002872778998064 0.44605693986584799 1.0213927044655218 -1.0456048404016582 0.53114075142863348 0.45256084869432911];
  
  % ===== SIMULATION ========
  
  % Dimensions
  Q = size(x1,2); % samples
  
  % Input 1
  xp1 = mapminmax_apply(x1,x1_step1_gain,x1_step1_xoffset,x1_step1_ymin);
  
  % Layer 1
  a1 = tansig_apply(repmat(b1,1,Q) + IW1_1*xp1);
  
  % Layer 2
  a2 = softmax_apply(repmat(b2,1,Q) + LW2_1*a1);
  
  % Output 1
  y1 = a2;
end

% ===== MODULE FUNCTIONS ========

% Map Minimum and Maximum Input Processing Function
function y = mapminmax_apply(x,settings_gain,settings_xoffset,settings_ymin)
  y = bsxfun(@minus,x,settings_xoffset);
  y = bsxfun(@times,y,settings_gain);
  y = bsxfun(@plus,y,settings_ymin);
end

% Competitive Soft Transfer Function
function a = softmax_apply(n)
  nmax = max(n,[],1);
  n = bsxfun(@minus,n,nmax);
  numer = exp(n);
  denom = sum(numer,1); 
  denom(denom == 0) = 1;
  a = bsxfun(@rdivide,numer,denom);
end

% Sigmoid Symmetric Transfer Function
function a = tansig_apply(n)
  a = 2 ./ (1 + exp(-2*n)) - 1;
end
